{
  "object_classifier_type": "OpenCVMLClassifier",
  "featureExtractor": {
    "feature_extractor_type": "DefaultFeatureExtractor",
    "measurements": [
      "Detection probability",
      "Red: Nucleus: Mean",
      "Red: Nucleus: Median",
      "Red: Nucleus: Min",
      "Red: Nucleus: Max",
      "Red: Nucleus: Std.Dev.",
      "Red: Cytoplasm: Mean",
      "Red: Cytoplasm: Median",
      "Red: Cytoplasm: Min",
      "Red: Cytoplasm: Max",
      "Red: Cytoplasm: Std.Dev.",
      "Red: Cell: Mean",
      "Red: Cell: Median",
      "Red: Cell: Min",
      "Red: Cell: Max",
      "Red: Cell: Std.Dev.",
      "Green: Nucleus: Mean",
      "Green: Nucleus: Median",
      "Green: Nucleus: Min",
      "Green: Nucleus: Max",
      "Green: Nucleus: Std.Dev.",
      "Green: Cytoplasm: Mean",
      "Green: Cytoplasm: Median",
      "Green: Cytoplasm: Min",
      "Green: Cytoplasm: Max",
      "Green: Cytoplasm: Std.Dev.",
      "Green: Cell: Mean",
      "Green: Cell: Median",
      "Green: Cell: Min",
      "Green: Cell: Max",
      "Green: Cell: Std.Dev.",
      "Blue: Nucleus: Mean",
      "Blue: Nucleus: Median",
      "Blue: Nucleus: Min",
      "Blue: Nucleus: Max",
      "Blue: Nucleus: Std.Dev.",
      "Blue: Cytoplasm: Mean",
      "Blue: Cytoplasm: Median",
      "Blue: Cytoplasm: Min",
      "Blue: Cytoplasm: Max",
      "Blue: Cytoplasm: Std.Dev.",
      "Blue: Cell: Mean",
      "Blue: Cell: Median",
      "Blue: Cell: Min",
      "Blue: Cell: Max",
      "Blue: Cell: Std.Dev.",
      "Hematoxylin: Nucleus: Mean",
      "Hematoxylin: Nucleus: Median",
      "Hematoxylin: Nucleus: Min",
      "Hematoxylin: Nucleus: Max",
      "Hematoxylin: Nucleus: Std.Dev.",
      "Hematoxylin: Cytoplasm: Mean",
      "Hematoxylin: Cytoplasm: Median",
      "Hematoxylin: Cytoplasm: Min",
      "Hematoxylin: Cytoplasm: Max",
      "Hematoxylin: Cytoplasm: Std.Dev.",
      "Hematoxylin: Cell: Mean",
      "Hematoxylin: Cell: Median",
      "Hematoxylin: Cell: Min",
      "Hematoxylin: Cell: Max",
      "Hematoxylin: Cell: Std.Dev.",
      "DAB: Nucleus: Mean",
      "DAB: Nucleus: Median",
      "DAB: Nucleus: Min",
      "DAB: Nucleus: Max",
      "DAB: Nucleus: Std.Dev.",
      "DAB: Cytoplasm: Mean",
      "DAB: Cytoplasm: Median",
      "DAB: Cytoplasm: Min",
      "DAB: Cytoplasm: Max",
      "DAB: Cytoplasm: Std.Dev.",
      "DAB: Cell: Mean",
      "DAB: Cell: Median",
      "DAB: Cell: Min",
      "DAB: Cell: Max",
      "DAB: Cell: Std.Dev.",
      "Residual: Nucleus: Mean",
      "Residual: Nucleus: Median",
      "Residual: Nucleus: Min",
      "Residual: Nucleus: Max",
      "Residual: Nucleus: Std.Dev.",
      "Residual: Cytoplasm: Mean",
      "Residual: Cytoplasm: Median",
      "Residual: Cytoplasm: Min",
      "Residual: Cytoplasm: Max",
      "Residual: Cytoplasm: Std.Dev.",
      "Residual: Cell: Mean",
      "Residual: Cell: Median",
      "Residual: Cell: Min",
      "Residual: Cell: Max",
      "Residual: Cell: Std.Dev.",
      "Nucleus: Area µm^2",
      "Nucleus: Length µm",
      "Nucleus: Circularity",
      "Nucleus: Solidity",
      "Nucleus: Max diameter µm",
      "Nucleus: Min diameter µm",
      "DAB Haralick Angular second moment (F0)",
      "DAB Haralick Contrast (F1)",
      "DAB Haralick Correlation (F2)",
      "DAB Haralick Sum of squares (F3)",
      "DAB Haralick Inverse difference moment (F4)",
      "DAB Haralick Sum average (F5)",
      "DAB Haralick Sum variance (F6)",
      "DAB Haralick Sum entropy (F7)",
      "DAB Haralick Entropy (F8)",
      "DAB Haralick Difference variance (F9)",
      "DAB Haralick Difference entropy (F10)",
      "DAB Haralick Information measure of correlation 1 (F11)",
      "DAB Haralick Information measure of correlation 2 (F12)"
    ]
  },
  "classifier": {
    "class": "RTrees",
    "statmodel": {
      "opencv_ml_rtrees": {
        "format": 3,
        "is_classifier": 1,
        "var_all": 111,
        "var_count": 110,
        "ord_var_count": 110,
        "cat_var_count": 1,
        "training_params": {
          "use_surrogates": 0,
          "max_categories": 10,
          "regression_accuracy": 0.0,
          "max_depth": 25,
          "min_sample_count": 10,
          "cross_validation_folds": 0,
          "nactive_vars": 0
        },
        "global_var_idx": 1,
        "var_idx": [
          0,
          1,
          2,
          3,
          4,
          5,
          6,
          7,
          8,
          9,
          10,
          11,
          12,
          13,
          14,
          15,
          16,
          17,
          18,
          19,
          20,
          21,
          22,
          23,
          24,
          25,
          26,
          27,
          28,
          29,
          30,
          31,
          32,
          33,
          34,
          35,
          36,
          37,
          38,
          39,
          40,
          41,
          42,
          43,
          44,
          45,
          46,
          47,
          48,
          49,
          50,
          51,
          52,
          53,
          54,
          55,
          56,
          57,
          58,
          59,
          60,
          61,
          62,
          63,
          64,
          65,
          66,
          67,
          68,
          69,
          70,
          71,
          72,
          73,
          74,
          75,
          76,
          77,
          78,
          79,
          80,
          81,
          82,
          83,
          84,
          85,
          86,
          87,
          88,
          89,
          90,
          91,
          92,
          93,
          94,
          95,
          96,
          97,
          98,
          99,
          100,
          101,
          102,
          103,
          104,
          105,
          106,
          107,
          108,
          109
        ],
        "var_type": [
          0,
          0,
          0,
          0,
          0,
          0,
          0,
          0,
          0,
          0,
          0,
          0,
          0,
          0,
          0,
          0,
          0,
          0,
          0,
          0,
          0,
          0,
          0,
          0,
          0,
          0,
          0,
          0,
          0,
          0,
          0,
          0,
          0,
          0,
          0,
          0,
          0,
          0,
          0,
          0,
          0,
          0,
          0,
          0,
          0,
          0,
          0,
          0,
          0,
          0,
          0,
          0,
          0,
          0,
          0,
          0,
          0,
          0,
          0,
          0,
          0,
          0,
          0,
          0,
          0,
          0,
          0,
          0,
          0,
          0,
          0,
          0,
          0,
          0,
          0,
          0,
          0,
          0,
          0,
          0,
          0,
          0,
          0,
          0,
          0,
          0,
          0,
          0,
          0,
          0,
          0,
          0,
          0,
          0,
          0,
          0,
          0,
          0,
          0,
          0,
          0,
          0,
          0,
          0,
          0,
          0,
          0,
          0,
          0,
          0,
          1
        ],
        "cat_ofs": [
          0,
          0,
          0,
          0,
          0,
          0,
          0,
          0,
          0,
          0,
          0,
          0,
          0,
          0,
          0,
          0,
          0,
          0,
          0,
          0,
          0,
          0,
          0,
          0,
          0,
          0,
          0,
          0,
          0,
          0,
          0,
          0,
          0,
          0,
          0,
          0,
          0,
          0,
          0,
          0,
          0,
          0,
          0,
          0,
          0,
          0,
          0,
          0,
          0,
          0,
          0,
          0,
          0,
          0,
          0,
          0,
          0,
          0,
          0,
          0,
          0,
          0,
          0,
          0,
          0,
          0,
          0,
          0,
          0,
          0,
          0,
          0,
          0,
          0,
          0,
          0,
          0,
          0,
          0,
          0,
          0,
          0,
          0,
          0,
          0,
          0,
          0,
          0,
          0,
          0,
          0,
          0,
          0,
          0,
          0,
          0,
          0,
          0,
          0,
          0,
          0,
          0,
          0,
          0,
          0,
          0,
          0,
          0,
          0,
          0,
          0,
          0,
          0,
          0,
          0,
          0,
          0,
          0,
          0,
          0,
          0,
          0,
          0,
          0,
          0,
          0,
          0,
          0,
          0,
          0,
          0,
          0,
          0,
          0,
          0,
          0,
          0,
          0,
          0,
          0,
          0,
          0,
          0,
          0,
          0,
          0,
          0,
          0,
          0,
          0,
          0,
          0,
          0,
          0,
          0,
          0,
          0,
          0,
          0,
          0,
          0,
          0,
          0,
          0,
          0,
          0,
          0,
          0,
          0,
          0,
          0,
          0,
          0,
          0,
          0,
          0,
          0,
          0,
          0,
          0,
          0,
          0,
          0,
          0,
          0,
          0,
          0,
          0,
          0,
          0,
          0,
          0,
          0,
          0,
          0,
          0,
          0,
          0,
          0,
          0,
          0,
          0,
          0,
          0,
          0,
          0,
          0,
          0,
          0,
          0,
          0,
          0,
          0,
          0,
          0,
          0,
          0,
          0,
          0,
          0
        ],
        "class_labels": [
          0,
          1
        ],
        "missing_subst": [
          0.0,
          0.0,
          0.0,
          0.0,
          0.0,
          0.0,
          0.0,
          0.0,
          0.0,
          0.0,
          0.0,
          0.0,
          0.0,
          0.0,
          0.0,
          0.0,
          0.0,
          0.0,
          0.0,
          0.0,
          0.0,
          0.0,
          0.0,
          0.0,
          0.0,
          0.0,
          0.0,
          0.0,
          0.0,
          0.0,
          0.0,
          0.0,
          0.0,
          0.0,
          0.0,
          0.0,
          0.0,
          0.0,
          0.0,
          0.0,
          0.0,
          0.0,
          0.0,
          0.0,
          0.0,
          0.0,
          0.0,
          0.0,
          0.0,
          0.0,
          0.0,
          0.0,
          0.0,
          0.0,
          0.0,
          0.0,
          0.0,
          0.0,
          0.0,
          0.0,
          0.0,
          0.0,
          0.0,
          0.0,
          0.0,
          0.0,
          0.0,
          0.0,
          0.0,
          0.0,
          0.0,
          0.0,
          0.0,
          0.0,
          0.0,
          0.0,
          0.0,
          0.0,
          0.0,
          0.0,
          0.0,
          0.0,
          0.0,
          0.0,
          0.0,
          0.0,
          0.0,
          0.0,
          0.0,
          0.0,
          0.0,
          0.0,
          0.0,
          0.0,
          0.0,
          0.0,
          0.0,
          0.0,
          0.0,
          0.0,
          0.0,
          0.0,
          0.0,
          0.0,
          0.0,
          0.0,
          0.0,
          0.0,
          0.0,
          0.0,
          0.0
        ],
        "oob_error": 1.1486486486486487e-01,
        "var_importance": [
          1.20301303e-02,
          8.62219185e-03,
          8.59660842e-03,
          8.43797717e-03,
          8.37145559e-03,
          8.55055172e-03,
          9.36927274e-03,
          9.24646575e-03,
          8.51984788e-03,
          8.44821054e-03,
          8.72964785e-03,
          8.68871063e-03,
          8.74499697e-03,
          8.52496549e-03,
          8.44821054e-03,
          9.19529516e-03,
          9.49720014e-03,
          9.22088139e-03,
          8.26399866e-03,
          8.36633798e-03,
          8.43285955e-03,
          8.34587216e-03,
          9.58419032e-03,
          8.41750856e-03,
          8.62218998e-03,
          8.99573229e-03,
          8.55054986e-03,
          8.46867915e-03,
          8.67847633e-03,
          8.46356247e-03,
          8.64777807e-03,
          1.12369880e-02,
          1.21478252e-02,
          8.79105181e-03,
          8.33051931e-03,
          8.50961450e-03,
          9.11342166e-03,
          8.86780676e-03,
          8.39192327e-03,
          8.60683806e-03,
          9.15436167e-03,
          8.64777435e-03,
          8.54543410e-03,
          8.53008311e-03,
          8.44821148e-03,
          9.86562856e-03,
          9.31810401e-03,
          9.06737149e-03,
          8.41239281e-03,
          8.40215851e-03,
          8.71941540e-03,
          8.82175472e-03,
          9.24134720e-03,
          8.53520073e-03,
          8.32540262e-03,
          8.62218905e-03,
          8.85245670e-03,
          8.90362449e-03,
          8.79616849e-03,
          8.36633798e-03,
          8.42262805e-03,
          9.59954504e-03,
          1.39029510e-02,
          8.42774194e-03,
          8.73988308e-03,
          8.66824389e-03,
          9.16459411e-03,
          8.78593698e-03,
          8.46867915e-03,
          8.36122129e-03,
          8.66312720e-03,
          9.32322163e-03,
          8.74499697e-03,
          8.44309386e-03,
          8.85245577e-03,
          1.35549931e-02,
          8.73988215e-03,
          9.39997938e-03,
          9.01620183e-03,
          8.32028501e-03,
          8.47379677e-03,
          8.54543503e-03,
          8.36633984e-03,
          8.56078509e-03,
          8.39192420e-03,
          8.59148800e-03,
          8.71429779e-03,
          8.82687047e-03,
          8.82687047e-03,
          8.50449689e-03,
          9.30787157e-03,
          1.09402016e-02,
          9.55860410e-03,
          9.60465986e-03,
          9.28228907e-03,
          9.23111849e-03,
          1.07764555e-02,
          8.81151855e-03,
          8.85245670e-03,
          1.26236966e-02,
          1.31814694e-02,
          8.92409217e-03,
          8.90875049e-03,
          1.25674242e-02,
          8.83710757e-03,
          8.96502938e-03,
          8.48403014e-03,
          8.63754284e-03,
          8.51473399e-03,
          9.93726496e-03
        ],
        "ntrees": 50,
        "trees": [
          {
            "nodes": [
              {
                "depth": 0,
                "value": 0.0,
                "norm_class_idx": 0,
                "splits": [
                  {
                    "var": 46,
                    "quality": 9.4944616699218750e+02,
                    "le": 4.3086642026901245e-01
                  }
                ]
              },
              {
                "depth": 1,
                "value": 0.0,
                "norm_class_idx": 0,
                "splits": [
                  {
                    "var": 0,
                    "quality": 8.0578198242187500e+02,
                    "le": 8.3288937807083130e-01
                  }
                ]
              },
              {
                "depth": 2,
                "value": 0.0,
                "norm_class_idx": 0,
                "splits": [
                  {
                    "var": 32,
                    "quality": 6.6906878662109375e+02,
                    "le": 4.2250000000000000e+01
                  }
                ]
              },
              {
                "depth": 3,
                "value": 0.0,
                "norm_class_idx": 0,
                "splits": [
                  {
                    "var": 7,
                    "quality": 1.0100538635253906e+02,
                    "le": 146.0
                  }
                ]
              },
              {
                "depth": 4,
                "value": 0.0,
                "norm_class_idx": 0,
                "splits": [
                  {
                    "var": 0,
                    "quality": 4.1500000000000000e+01,
                    "le": 7.1790623664855957e-01
                  }
                ]
              },
              {
                "depth": 5,
                "value": 0.0,
                "norm_class_idx": 0
              },
              {
                "depth": 5,
                "value": 0.0,
                "norm_class_idx": 0,
                "splits": [
                  {
                    "var": 7,
                    "quality": 12.0,
                    "le": 128.0
                  }
                ]
              },
              {
                "depth": 6,
                "value": 0.0,
                "norm_class_idx": 0
              },
              {
                "depth": 6,
                "value": 1.0,
                "norm_class_idx": 1
              },
              {
                "depth": 4,
                "value": 0.0,
                "norm_class_idx": 0,
                "splits": [
                  {
                    "var": 98,
                    "quality": 8.3202598571777344e+01,
                    "le": 2.6680653095245361e+00
                  }
                ]
              },
              {
                "depth": 5,
                "value": 1.0,
                "norm_class_idx": 1,
                "splits": [
                  {
                    "var": 42,
                    "quality": 5.3739315032958984e+01,
                    "le": 8.9500000000000000e+01
                  }
                ]
              },
              {
                "depth": 6,
                "value": 1.0,
                "norm_class_idx": 1,
                "splits": [
                  {
                    "var": 94,
                    "quality": 4.6666667938232422e+01,
                    "le": 9.3400776386260986e-01
                  }
                ]
              },
              {
                "depth": 7,
                "value": 0.0,
                "norm_class_idx": 0
              },
              {
                "depth": 7,
                "value": 1.0,
                "norm_class_idx": 1,
                "splits": [
                  {
                    "var": 104,
                    "quality": 4.4666667938232422e+01,
                    "le": 4.3786320686340332e+00
                  }
                ]
              },
              {
                "depth": 8,
                "value": 1.0,
                "norm_class_idx": 1,
                "splits": [
                  {
                    "var": 22,
                    "quality": 12.0,
                    "le": 1.3650000000000000e+02
                  }
                ]
              },
              {
                "depth": 9,
                "value": 0.0,
                "norm_class_idx": 0
              },
              {
                "depth": 9,
                "value": 1.0,
                "norm_class_idx": 1
              },
              {
                "depth": 8,
                "value": 1.0,
                "norm_class_idx": 1
              },
              {
                "depth": 6,
                "value": 0.0,
                "norm_class_idx": 0,
                "splits": [
                  {
                    "var": 45,
                    "quality": 1.4533333778381348e+01,
                    "le": 6.2472301483154297e+01
                  }
                ]
              },
              {
                "depth": 7,
                "value": 0.0,
                "norm_class_idx": 0,
                "splits": [
                  {
                    "var": 54,
                    "quality": 1.3142857551574707e+01,
                    "le": 6.6092181205749512e-01
                  }
                ]
              },
              {
                "depth": 8,
                "value": 0.0,
                "norm_class_idx": 0,
                "splits": [
                  {
                    "var": 31,
                    "quality": 14.0,
                    "le": 4.0449851989746094e+01
                  }
                ]
              },
              {
                "depth": 9,
                "value": 1.0,
                "norm_class_idx": 1
              },
              {
                "depth": 9,
                "value": 0.0,
                "norm_class_idx": 0
              },
              {
                "depth": 8,
                "value": 1.0,
                "norm_class_idx": 1
              },
              {
                "depth": 7,
                "value": 1.0,
                "norm_class_idx": 1
              },
              {
                "depth": 5,
                "value": 0.0,
                "norm_class_idx": 0,
                "splits": [
                  {
                    "var": 41,
                    "quality": 4.4400001525878906e+01,
                    "le": 6.6184616088867188e+01
                  }
                ]
              },
              {
                "depth": 6,
                "value": 1.0,
                "norm_class_idx": 1
              },
              {
                "depth": 6,
                "value": 0.0,
                "norm_class_idx": 0,
                "splits": [
                  {
                    "var": 28,
                    "quality": 4.2653060913085938e+01,
                    "le": 20.0
                  }
                ]
              },
              {
                "depth": 7,
                "value": 0.0,
                "norm_class_idx": 0,
                "splits": [
                  {
                    "var": 48,
                    "quality": 4.3375000000000000e+01,
                    "le": -1.4985838532447815e-01
                  }
                ]
              },
              {
                "depth": 8,
                "value": 1.0,
                "norm_class_idx": 1
              },
              {
                "depth": 8,
                "value": 0.0,
                "norm_class_idx": 0,
                "splits": [
                  {
                    "var": 19,
                    "quality": 44.0,
                    "le": 176.0
                  }
                ]
              },
              {
                "depth": 9,
                "value": 0.0,
                "norm_class_idx": 0
              },
              {
                "depth": 9,
                "value": 0.0,
                "norm_class_idx": 0
              },
              {
                "depth": 7,
                "value": 1.0,
                "norm_class_idx": 1
              },
              {
                "depth": 3,
                "value": 0.0,
                "norm_class_idx": 0,
                "splits": [
                  {
                    "var": 7,
                    "quality": 5.8447900390625000e+02,
                    "le": 1.7850000000000000e+02
                  }
                ]
              },
              {
                "depth": 4,
                "value": 0.0,
                "norm_class_idx": 0,
                "splits": [
                  {
                    "var": 22,
                    "quality": 4.4171127319335938e+02,
                    "le": 1.2750000000000000e+02
                  }
                ]
              },
              {
                "depth": 5,
                "value": 0.0,
                "norm_class_idx": 0,
                "splits": [
                  {
                    "var": 31,
                    "quality": 2.6204443359375000e+02,
                    "le": 4.8710617065429688e+01
                  }
                ]
              },
              {
                "depth": 6,
                "value": 0.0,
                "norm_class_idx": 0,
                "splits": [
                  {
                    "var": 2,
                    "quality": 45.0,
                    "le": 1.1775000000000000e+02
                  }
                ]
              },
              {
                "depth": 7,
                "value": 0.0,
                "norm_class_idx": 0
              },
              {
                "depth": 7,
                "value": 1.0,
                "norm_class_idx": 1
              },
              {
                "depth": 6,
                "value": 0.0,
                "norm_class_idx": 0
              },
              {
                "depth": 5,
                "value": 0.0,
                "norm_class_idx": 0,
                "splits": [
                  {
                    "var": 42,
                    "quality": 1.8876945495605469e+02,
                    "le": 7.6250000000000000e+01
                  }
                ]
              },
              {
                "depth": 6,
                "value": 1.0,
                "norm_class_idx": 1,
                "splits": [
                  {
                    "var": 76,
                    "quality": 1.0727272987365723e+01,
                    "le": -1.1922079138457775e-02
                  }
                ]
              },
              {
                "depth": 7,
                "value": 1.0,
                "norm_class_idx": 1,
                "splits": [
                  {
                    "var": 45,
                    "quality": 11.0,
                    "le": 5.1737018585205078e+01
                  }
                ]
              },
              {
                "depth": 8,
                "value": 1.0,
                "norm_class_idx": 1
              },
              {
                "depth": 8,
                "value": 0.0,
                "norm_class_idx": 0
              },
              {
                "depth": 7,
                "value": 0.0,
                "norm_class_idx": 0
              },
              {
                "depth": 6,
                "value": 0.0,
                "norm_class_idx": 0,
                "splits": [
                  {
                    "var": 12,
                    "quality": 1.8417240905761719e+02,
                    "le": 1.5350000000000000e+02
                  }
                ]
              },
              {
                "depth": 7,
                "value": 0.0,
                "norm_class_idx": 0,
                "splits": [
                  {
                    "var": 48,
                    "quality": 4.4327274322509766e+01,
                    "le": -4.0582790970802307e-02
                  }
                ]
              },
              {
                "depth": 8,
                "value": 1.0,
                "norm_class_idx": 1
              },
              {
                "depth": 8,
                "value": 0.0,
                "norm_class_idx": 0,
                "splits": [
                  {
                    "var": 34,
                    "quality": 4.3051280975341797e+01,
                    "le": 1.1650000000000000e+02
                  }
                ]
              },
              {
                "depth": 9,
                "value": 1.0,
                "norm_class_idx": 1
              },
              {
                "depth": 9,
                "value": 0.0,
                "norm_class_idx": 0,
                "splits": [
                  {
                    "var": 71,
                    "quality": 4.2880001068115234e+01,
                    "le": 2.6517337560653687e-01
                  }
                ]
              },
              {
                "depth": 10,
                "value": 0.0,
                "norm_class_idx": 0
              },
              {
                "depth": 10,
                "value": 0.0,
                "norm_class_idx": 0,
                "splits": [
                  {
                    "var": 37,
                    "quality": 1.9818181991577148e+01,
                    "le": 141.0
                  }
                ]
              },
              {
                "depth": 11,
                "value": 0.0,
                "norm_class_idx": 0,
                "splits": [
                  {
                    "var": 34,
                    "quality": 1.8380952835083008e+01,
                    "le": 1.5950000000000000e+02
                  }
                ]
              },
              {
                "depth": 12,
                "value": 0.0,
                "norm_class_idx": 0,
                "splits": [
                  {
                    "var": 109,
                    "quality": 1.9100000381469727e+01,
                    "le": 9.9016118049621582e-01
                  }
                ]
              },
              {
                "depth": 13,
                "value": 0.0,
                "norm_class_idx": 0,
                "splits": [
                  {
                    "var": 67,
                    "quality": 1.8666666030883789e+01,
                    "le": 9.7847372293472290e-02
                  }
                ]
              },
              {
                "depth": 14,
                "value": 0.0,
                "norm_class_idx": 0
              },
              {
                "depth": 14,
                "value": 0.0,
                "norm_class_idx": 0
              },
              {
                "depth": 13,
                "value": 1.0,
                "norm_class_idx": 1
              },
              {
                "depth": 12,
                "value": 1.0,
                "norm_class_idx": 1
              },
              {
                "depth": 11,
                "value": 1.0,
                "norm_class_idx": 1
              },
              {
                "depth": 7,
                "value": 0.0,
                "norm_class_idx": 0
              },
              {
                "depth": 4,
                "value": 0.0,
                "norm_class_idx": 0,
                "splits": [
                  {
                    "var": 109,
                    "quality": 1.5724839782714844e+02,
                    "le": 9.7539997100830078e-01
                  }
                ]
              },
              {
                "depth": 5,
                "value": 0.0,
                "norm_class_idx": 0,
                "splits": [
                  {
                    "var": 60,
                    "quality": 1.0849549865722656e+02,
                    "le": 1.8426468968391418e-01
                  }
                ]
              },
              {
                "depth": 6,
                "value": 0.0,
                "norm_class_idx": 0,
                "splits": [
                  {
                    "var": 74,
                    "quality": 1.0616208648681641e+02,
                    "le": 1.3374893665313721e+00
                  }
                ]
              },
              {
                "depth": 7,
                "value": 0.0,
                "norm_class_idx": 0,
                "splits": [
                  {
                    "var": 15,
                    "quality": 1.0250000000000000e+02,
                    "le": 1.4858694076538086e+01
                  }
                ]
              },
              {
                "depth": 8,
                "value": 0.0,
                "norm_class_idx": 0
              },
              {
                "depth": 8,
                "value": 0.0,
                "norm_class_idx": 0
              },
              {
                "depth": 7,
                "value": 0.0,
                "norm_class_idx": 0
              },
              {
                "depth": 6,
                "value": 0.0,
                "norm_class_idx": 0
              },
              {
                "depth": 5,
                "value": 0.0,
                "norm_class_idx": 0,
                "splits": [
                  {
                    "var": 84,
                    "quality": 6.2577816009521484e+01,
                    "le": 3.4611172974109650e-02
                  }
                ]
              },
              {
                "depth": 6,
                "value": 1.0,
                "norm_class_idx": 1,
                "splits": [
                  {
                    "var": 95,
                    "quality": 3.1722221374511719e+01,
                    "le": 6.0712738037109375e+00
                  }
                ]
              },
              {
                "depth": 7,
                "value": 0.0,
                "norm_class_idx": 0
              },
              {
                "depth": 7,
                "value": 1.0,
                "norm_class_idx": 1,
                "splits": [
                  {
                    "var": 85,
                    "quality": 2.8535715103149414e+01,
                    "le": 8.2275476306676865e-03
                  }
                ]
              },
              {
                "depth": 8,
                "value": 0.0,
                "norm_class_idx": 0
              },
              {
                "depth": 8,
                "value": 1.0,
                "norm_class_idx": 1,
                "splits": [
                  {
                    "var": 42,
                    "quality": 28.0,
                    "le": 72.0
                  }
                ]
              },
              {
                "depth": 9,
                "value": 0.0,
                "norm_class_idx": 0
              },
              {
                "depth": 9,
                "value": 1.0,
                "norm_class_idx": 1
              },
              {
                "depth": 6,
                "value": 0.0,
                "norm_class_idx": 0,
                "splits": [
                  {
                    "var": 99,
                    "quality": 4.3020408630371094e+01,
                    "le": 9.7602003812789917e-01
                  }
                ]
              },
              {
                "depth": 7,
                "value": 0.0,
                "norm_class_idx": 0,
                "splits": [
                  {
                    "var": 51,
                    "quality": 4.3382980346679688e+01,
                    "le": 1.2270057201385498e-01
                  }
                ]
              },
              {
                "depth": 8,
                "value": 0.0,
                "norm_class_idx": 0,
                "splits": [
                  {
                    "var": 63,
                    "quality": 4.2285713195800781e+01,
                    "le": 7.0753507316112518e-02
                  }
                ]
              },
              {
                "depth": 9,
                "value": 0.0,
                "norm_class_idx": 0,
                "splits": [
                  {
                    "var": 18,
                    "quality": 1.2500000000000000e+01,
                    "le": 31.0
                  }
                ]
              },
              {
                "depth": 10,
                "value": 0.0,
                "norm_class_idx": 0
              },
              {
                "depth": 10,
                "value": 1.0,
                "norm_class_idx": 1
              },
              {
                "depth": 9,
                "value": 0.0,
                "norm_class_idx": 0
              },
              {
                "depth": 8,
                "value": 1.0,
                "norm_class_idx": 1
              },
              {
                "depth": 7,
                "value": 1.0,
                "norm_class_idx": 1
              },
              {
                "depth": 2,
                "value": 1.0,
                "norm_class_idx": 1,
                "splits": [
                  {
                    "var": 100,
                    "quality": 1.8282441711425781e+02,
                    "le": 7.3591642379760742e+00
                  }
                ]
              },
              {
                "depth": 3,
                "value": 0.0,
                "norm_class_idx": 0,
                "splits": [
                  {
                    "var": 11,
                    "quality": 23.0,
                    "le": 1.8477854919433594e+02
                  }
                ]
              },
              {
                "depth": 4,
                "value": 0.0,
                "norm_class_idx": 0
              },
              {
                "depth": 4,
                "value": 1.0,
                "norm_class_idx": 1
              },
              {
                "depth": 3,
                "value": 1.0,
                "norm_class_idx": 1,
                "splits": [
                  {
                    "var": 94,
                    "quality": 1.8930244445800781e+02,
                    "le": 9.8436319828033447e-01
                  }
                ]
              },
              {
                "depth": 4,
                "value": 0.0,
                "norm_class_idx": 0,
                "splits": [
                  {
                    "var": 84,
                    "quality": 2.4666666030883789e+01,
                    "le": 3.0160143971443176e-02
                  }
                ]
              },
              {
                "depth": 5,
                "value": 1.0,
                "norm_class_idx": 1
              },
              {
                "depth": 5,
                "value": 0.0,
                "norm_class_idx": 0,
                "splits": [
                  {
                    "var": 42,
                    "quality": 2.3307691574096680e+01,
                    "le": 3.3500000000000000e+01
                  }
                ]
              },
              {
                "depth": 6,
                "value": 1.0,
                "norm_class_idx": 1
              },
              {
                "depth": 6,
                "value": 0.0,
                "norm_class_idx": 0,
                "splits": [
                  {
                    "var": 75,
                    "quality": 2.4079999923706055e+01,
                    "le": 3.3234632015228271e-01
                  }
                ]
              },
              {
                "depth": 7,
                "value": 0.0,
                "norm_class_idx": 0,
                "splits": [
                  {
                    "var": 66,
                    "quality": 25.0,
                    "le": 6.8585798144340515e-02
                  }
                ]
              },
              {
                "depth": 8,
                "value": 1.0,
                "norm_class_idx": 1
              },
              {
                "depth": 8,
                "value": 0.0,
                "norm_class_idx": 0
              },
              {
                "depth": 7,
                "value": 1.0,
                "norm_class_idx": 1
              },
              {
                "depth": 4,
                "value": 1.0,
                "norm_class_idx": 1,
                "splits": [
                  {
                    "var": 95,
                    "quality": 1.7682666015625000e+02,
                    "le": 8.0631217956542969e+00
                  }
                ]
              },
              {
                "depth": 5,
                "value": 1.0,
                "norm_class_idx": 1,
                "splits": [
                  {
                    "var": 80,
                    "quality": 2.1130434036254883e+01,
                    "le": 1.9413648173213005e-02
                  }
                ]
              },
              {
                "depth": 6,
                "value": 0.0,
                "norm_class_idx": 0
              },
              {
                "depth": 6,
                "value": 1.0,
                "norm_class_idx": 1,
                "splits": [
                  {
                    "var": 72,
                    "quality": 1.7899999618530273e+01,
                    "le": 2.9184794425964355e-01
                  }
                ]
              },
              {
                "depth": 7,
                "value": 1.0,
                "norm_class_idx": 1,
                "splits": [
                  {
                    "var": 69,
                    "quality": 1.6250000000000000e+01,
                    "le": 6.2568253278732300e-01
                  }
                ]
              },
              {
                "depth": 8,
                "value": 1.0,
                "norm_class_idx": 1
              },
              {
                "depth": 8,
                "value": 1.0,
                "norm_class_idx": 1
              },
              {
                "depth": 7,
                "value": 0.0,
                "norm_class_idx": 0
              },
              {
                "depth": 5,
                "value": 1.0,
                "norm_class_idx": 1,
                "splits": [
                  {
                    "var": 101,
                    "quality": 1.6528901672363281e+02,
                    "le": 4.8308974504470825e-01
                  }
                ]
              },
              {
                "depth": 6,
                "value": 0.0,
                "norm_class_idx": 0
              },
              {
                "depth": 6,
                "value": 1.0,
                "norm_class_idx": 1,
                "splits": [
                  {
                    "var": 91,
                    "quality": 1.6518605041503906e+02,
                    "le": 6.6131164550781250e+02
                  }
                ]
              },
              {
                "depth": 7,
                "value": 1.0,
                "norm_class_idx": 1,
                "splits": [
                  {
                    "var": 109,
                    "quality": 1.6851190185546875e+02,
                    "le": 9.9292904138565063e-01
                  }
                ]
              },
              {
                "depth": 8,
                "value": 1.0,
                "norm_class_idx": 1,
                "splits": [
                  {
                    "var": 87,
                    "quality": 1.6633332824707031e+02,
                    "le": -7.8152178321033716e-04
                  }
                ]
              },
              {
                "depth": 9,
                "value": 1.0,
                "norm_class_idx": 1
              },
              {
                "depth": 9,
                "value": 1.0,
                "norm_class_idx": 1
              },
              {
                "depth": 8,
                "value": 0.0,
                "norm_class_idx": 0
              },
              {
                "depth": 7,
                "value": 0.0,
                "norm_class_idx": 0
              },
              {
                "depth": 1,
                "value": 1.0,
                "norm_class_idx": 1,
                "splits": [
                  {
                    "var": 61,
                    "quality": 3.3472262573242188e+02,
                    "le": 7.4800759553909302e-01
                  }
                ]
              },
              {
                "depth": 2,
                "value": 0.0,
                "norm_class_idx": 0,
                "splits": [
                  {
                    "var": 55,
                    "quality": 8.9876541137695312e+01,
                    "le": 9.8359584808349609e-02
                  }
                ]
              },
              {
                "depth": 3,
                "value": 1.0,
                "norm_class_idx": 1,
                "splits": [
                  {
                    "var": 67,
                    "quality": 24.0,
                    "le": 1.2222946435213089e-01
                  }
                ]
              },
              {
                "depth": 4,
                "value": 1.0,
                "norm_class_idx": 1
              },
              {
                "depth": 4,
                "value": 0.0,
                "norm_class_idx": 0
              },
              {
                "depth": 3,
                "value": 0.0,
                "norm_class_idx": 0,
                "splits": [
                  {
                    "var": 100,
                    "quality": 7.1632911682128906e+01,
                    "le": 3.4612556457519531e+01
                  }
                ]
              },
              {
                "depth": 4,
                "value": 0.0,
                "norm_class_idx": 0,
                "splits": [
                  {
                    "var": 40,
                    "quality": 7.0579910278320312e+01,
                    "le": 6.3445533752441406e+01
                  }
                ]
              },
              {
                "depth": 5,
                "value": 0.0,
                "norm_class_idx": 0,
                "splits": [
                  {
                    "var": 99,
                    "quality": 6.7818183898925781e+01,
                    "le": 9.6187579631805420e-01
                  }
                ]
              },
              {
                "depth": 6,
                "value": 0.0,
                "norm_class_idx": 0
              },
              {
                "depth": 6,
                "value": 0.0,
                "norm_class_idx": 0,
                "splits": [
                  {
                    "var": 99,
                    "quality": 1.8380952835083008e+01,
                    "le": 9.6312975883483887e-01
                  }
                ]
              },
              {
                "depth": 7,
                "value": 1.0,
                "norm_class_idx": 1
              },
              {
                "depth": 7,
                "value": 0.0,
                "norm_class_idx": 0,
                "splits": [
                  {
                    "var": 42,
                    "quality": 1.9100000381469727e+01,
                    "le": 160.0
                  }
                ]
              },
              {
                "depth": 8,
                "value": 0.0,
                "norm_class_idx": 0,
                "splits": [
                  {
                    "var": 50,
                    "quality": 20.0,
                    "le": 1.7045521736145020e-01
                  }
                ]
              },
              {
                "depth": 9,
                "value": 1.0,
                "norm_class_idx": 1
              },
              {
                "depth": 9,
                "value": 0.0,
                "norm_class_idx": 0
              },
              {
                "depth": 8,
                "value": 1.0,
                "norm_class_idx": 1
              },
              {
                "depth": 5,
                "value": 0.0,
                "norm_class_idx": 0
              },
              {
                "depth": 4,
                "value": 1.0,
                "norm_class_idx": 1
              },
              {
                "depth": 2,
                "value": 1.0,
                "norm_class_idx": 1,
                "splits": [
                  {
                    "var": 86,
                    "quality": 2.8784783935546875e+02,
                    "le": 5.6848041713237762e-02
                  }
                ]
              },
              {
                "depth": 3,
                "value": 1.0,
                "norm_class_idx": 1,
                "splits": [
                  {
                    "var": 95,
                    "quality": 2.9209188842773438e+02,
                    "le": 5.4305410385131836e+00
                  }
                ]
              },
              {
                "depth": 4,
                "value": 0.0,
                "norm_class_idx": 0,
                "splits": [
                  {
                    "var": 100,
                    "quality": 13.0,
                    "le": 2.1105869293212891e+01
                  }
                ]
              },
              {
                "depth": 5,
                "value": 1.0,
                "norm_class_idx": 1
              },
              {
                "depth": 5,
                "value": 0.0,
                "norm_class_idx": 0
              },
              {
                "depth": 4,
                "value": 1.0,
                "norm_class_idx": 1,
                "splits": [
                  {
                    "var": 93,
                    "quality": 3.0269876098632812e+02,
                    "le": 8.6712783575057983e-01
                  }
                ]
              },
              {
                "depth": 5,
                "value": 1.0,
                "norm_class_idx": 1,
                "splits": [
                  {
                    "var": 49,
                    "quality": 5.3862472534179688e+01,
                    "le": 1.3054077625274658e+00
                  }
                ]
              },
              {
                "depth": 6,
                "value": 0.0,
                "norm_class_idx": 0,
                "splits": [
                  {
                    "var": 49,
                    "quality": 2.4105262756347656e+01,
                    "le": 9.7723639011383057e-01
                  }
                ]
              },
              {
                "depth": 7,
                "value": 1.0,
                "norm_class_idx": 1
              },
              {
                "depth": 7,
                "value": 0.0,
                "norm_class_idx": 0,
                "splits": [
                  {
                    "var": 101,
                    "quality": 19.0,
                    "le": 5.9573239088058472e-01
                  }
                ]
              },
              {
                "depth": 8,
                "value": 0.0,
                "norm_class_idx": 0
              },
              {
                "depth": 8,
                "value": 1.0,
                "norm_class_idx": 1
              },
              {
                "depth": 6,
                "value": 1.0,
                "norm_class_idx": 1,
                "splits": [
                  {
                    "var": 16,
                    "quality": 4.5124061584472656e+01,
                    "le": 2.5747779846191406e+01
                  }
                ]
              },
              {
                "depth": 7,
                "value": 1.0,
                "norm_class_idx": 1,
                "splits": [
                  {
                    "var": 42,
                    "quality": 2.6500000000000000e+01,
                    "le": 2.1500000000000000e+01
                  }
                ]
              },
              {
                "depth": 8,
                "value": 1.0,
                "norm_class_idx": 1
              },
              {
                "depth": 8,
                "value": 1.0,
                "norm_class_idx": 1
              },
              {
                "depth": 7,
                "value": 1.0,
                "norm_class_idx": 1,
                "splits": [
                  {
                    "var": 94,
                    "quality": 2.5500000000000000e+01,
                    "le": 9.6489953994750977e-01
                  }
                ]
              },
              {
                "depth": 8,
                "value": 1.0,
                "norm_class_idx": 1,
                "splits": [
                  {
                    "var": 77,
                    "quality": 1.6125000000000000e+01,
                    "le": 3.1924694776535034e-03
                  }
                ]
              },
              {
                "depth": 9,
                "value": 1.0,
                "norm_class_idx": 1,
                "splits": [
                  {
                    "var": 104,
                    "quality": 16.0,
                    "le": 5.2299213409423828e+00
                  }
                ]
              },
              {
                "depth": 10,
                "value": 1.0,
                "norm_class_idx": 1
              },
              {
                "depth": 10,
                "value": 0.0,
                "norm_class_idx": 0
              },
              {
                "depth": 9,
                "value": 0.0,
                "norm_class_idx": 0
              },
              {
                "depth": 8,
                "value": 0.0,
                "norm_class_idx": 0,
                "splits": [
                  {
                    "var": 62,
                    "quality": 1.4166666984558105e+01,
                    "le": 8.3324176073074341e-01
                  }
                ]
              },
              {
                "depth": 9,
                "value": 0.0,
                "norm_class_idx": 0
              },
              {
                "depth": 9,
                "value": 0.0,
                "norm_class_idx": 0,
                "splits": [
                  {
                    "var": 19,
                    "quality": 12.0,
                    "le": 169.0
                  }
                ]
              },
              {
                "depth": 10,
                "value": 0.0,
                "norm_class_idx": 0
              },
              {
                "depth": 10,
                "value": 1.0,
                "norm_class_idx": 1
              },
              {
                "depth": 5,
                "value": 1.0,
                "norm_class_idx": 1,
                "splits": [
                  {
                    "var": 90,
                    "quality": 2.5706896972656250e+02,
                    "le": 2.8749402612447739e-02
                  }
                ]
              },
              {
                "depth": 6,
                "value": 0.0,
                "norm_class_idx": 0
              },
              {
                "depth": 6,
                "value": 1.0,
                "norm_class_idx": 1,
                "splits": [
                  {
                    "var": 62,
                    "quality": 2.5703076171875000e+02,
                    "le": 7.5960087776184082e-01
                  }
                ]
              },
              {
                "depth": 7,
                "value": 0.0,
                "norm_class_idx": 0
              },
              {
                "depth": 7,
                "value": 1.0,
                "norm_class_idx": 1,
                "splits": [
                  {
                    "var": 13,
                    "quality": 2.5800772094726562e+02,
                    "le": 4.0
                  }
                ]
              },
              {
                "depth": 8,
                "value": 0.0,
                "norm_class_idx": 0
              },
              {
                "depth": 8,
                "value": 1.0,
                "norm_class_idx": 1,
                "splits": [
                  {
                    "var": 96,
                    "quality": 2.5766665649414062e+02,
                    "le": 4.5127401351928711e+00
                  }
                ]
              },
              {
                "depth": 9,
                "value": 1.0,
                "norm_class_idx": 1
              },
              {
                "depth": 9,
                "value": 1.0,
                "norm_class_idx": 1
              },
              {
                "depth": 3,
                "value": 0.0,
                "norm_class_idx": 0
              }
            ]
          },
          {
            "nodes": [
              {
                "depth": 0,
                "value": 0.0,
                "norm_class_idx": 0,
                "splits": [
                  {
                    "var": 31,
                    "quality": 9.9695404052734375e+02,
                    "le": 4.4185104370117188e+01
                  }
                ]
              },
              {
                "depth": 1,
                "value": 1.0,
                "norm_class_idx": 1,
                "splits": [
                  {
                    "var": 52,
                    "quality": 4.1892391967773438e+02,
                    "le": 1.7596158385276794e-01
                  }
                ]
              },
              {
                "depth": 2,
                "value": 1.0,
                "norm_class_idx": 1,
                "splits": [
                  {
                    "var": 93,
                    "quality": 3.9415960693359375e+02,
                    "le": 9.3863236904144287e-01
                  }
                ]
              },
              {
                "depth": 3,
                "value": 1.0,
                "norm_class_idx": 1,
                "splits": [
                  {
                    "var": 0,
                    "quality": 2.2591181945800781e+02,
                    "le": 7.2078704833984375e-01
                  }
                ]
              },
              {
                "depth": 4,
                "value": 0.0,
                "norm_class_idx": 0,
                "splits": [
                  {
                    "var": 47,
                    "quality": 4.9127273559570312e+01,
                    "le": 5.7335209846496582e-01
                  }
                ]
              },
              {
                "depth": 5,
                "value": 0.0,
                "norm_class_idx": 0,
                "splits": [
                  {
                    "var": 82,
                    "quality": 4.6040000915527344e+01,
                    "le": -3.5677002742886543e-03
                  }
                ]
              },
              {
                "depth": 6,
                "value": 0.0,
                "norm_class_idx": 0,
                "splits": [
                  {
                    "var": 0,
                    "quality": 4.4367347717285156e+01,
                    "le": 5.0724077224731445e-01
                  }
                ]
              },
              {
                "depth": 7,
                "value": 1.0,
                "norm_class_idx": 1
              },
              {
                "depth": 7,
                "value": 0.0,
                "norm_class_idx": 0,
                "splits": [
                  {
                    "var": 29,
                    "quality": 4.5166667938232422e+01,
                    "le": 1.5150000000000000e+02
                  }
                ]
              },
              {
                "depth": 8,
                "value": 1.0,
                "norm_class_idx": 1
              },
              {
                "depth": 8,
                "value": 0.0,
                "norm_class_idx": 0,
                "splits": [
                  {
                    "var": 6,
                    "quality": 4.6042552947998047e+01,
                    "le": 1.7096882629394531e+02
                  }
                ]
              },
              {
                "depth": 9,
                "value": 0.0,
                "norm_class_idx": 0,
                "splits": [
                  {
                    "var": 46,
                    "quality": 4.5666667938232422e+01,
                    "le": 3.2162365317344666e-01
                  }
                ]
              },
              {
                "depth": 10,
                "value": 0.0,
                "norm_class_idx": 0
              },
              {
                "depth": 10,
                "value": 0.0,
                "norm_class_idx": 0
              },
              {
                "depth": 9,
                "value": 1.0,
                "norm_class_idx": 1
              },
              {
                "depth": 6,
                "value": 1.0,
                "norm_class_idx": 1
              },
              {
                "depth": 5,
                "value": 1.0,
                "norm_class_idx": 1,
                "splits": [
                  {
                    "var": 101,
                    "quality": 12.0,
                    "le": 5.8637458086013794e-01
                  }
                ]
              },
              {
                "depth": 6,
                "value": 0.0,
                "norm_class_idx": 0
              },
              {
                "depth": 6,
                "value": 1.0,
                "norm_class_idx": 1
              },
              {
                "depth": 4,
                "value": 1.0,
                "norm_class_idx": 1,
                "splits": [
                  {
                    "var": 91,
                    "quality": 2.0496003723144531e+02,
                    "le": 2.5718933105468750e+01
                  }
                ]
              },
              {
                "depth": 5,
                "value": 0.0,
                "norm_class_idx": 0,
                "splits": [
                  {
                    "var": 27,
                    "quality": 2.8761905670166016e+01,
                    "le": 7.1500000000000000e+01
                  }
                ]
              },
              {
                "depth": 6,
                "value": 1.0,
                "norm_class_idx": 1
              },
              {
                "depth": 6,
                "value": 0.0,
                "norm_class_idx": 0,
                "splits": [
                  {
                    "var": 60,
                    "quality": 2.9333333969116211e+01,
                    "le": 2.6571148633956909e-01
                  }
                ]
              },
              {
                "depth": 7,
                "value": 0.0,
                "norm_class_idx": 0,
                "splits": [
                  {
                    "var": 1,
                    "quality": 1.3500000000000000e+01,
                    "le": 7.8136550903320312e+01
                  }
                ]
              },
              {
                "depth": 8,
                "value": 1.0,
                "norm_class_idx": 1
              },
              {
                "depth": 8,
                "value": 0.0,
                "norm_class_idx": 0,
                "splits": [
                  {
                    "var": 33,
                    "quality": 1.0199999809265137e+01,
                    "le": 1.3500000000000000e+01
                  }
                ]
              },
              {
                "depth": 9,
                "value": 0.0,
                "norm_class_idx": 0
              },
              {
                "depth": 9,
                "value": 1.0,
                "norm_class_idx": 1
              },
              {
                "depth": 7,
                "value": 0.0,
                "norm_class_idx": 0,
                "splits": [
                  {
                    "var": 76,
                    "quality": 2.2086956024169922e+01,
                    "le": -7.9224400222301483e-02
                  }
                ]
              },
              {
                "depth": 8,
                "value": 1.0,
                "norm_class_idx": 1
              },
              {
                "depth": 8,
                "value": 0.0,
                "norm_class_idx": 0,
                "splits": [
                  {
                    "var": 77,
                    "quality": 23.0,
                    "le": -6.9424852728843689e-02
                  }
                ]
              },
              {
                "depth": 9,
                "value": 1.0,
                "norm_class_idx": 1
              },
              {
                "depth": 9,
                "value": 0.0,
                "norm_class_idx": 0
              },
              {
                "depth": 5,
                "value": 1.0,
                "norm_class_idx": 1,
                "splits": [
                  {
                    "var": 84,
                    "quality": 1.8381739807128906e+02,
                    "le": 3.1317609548568726e-01
                  }
                ]
              },
              {
                "depth": 6,
                "value": 1.0,
                "norm_class_idx": 1,
                "splits": [
                  {
                    "var": 93,
                    "quality": 1.9032142639160156e+02,
                    "le": 5.9338140487670898e-01
                  }
                ]
              },
              {
                "depth": 7,
                "value": 0.0,
                "norm_class_idx": 0
              },
              {
                "depth": 7,
                "value": 1.0,
                "norm_class_idx": 1,
                "splits": [
                  {
                    "var": 40,
                    "quality": 1.9264515686035156e+02,
                    "le": 6.4071380615234375e+01
                  }
                ]
              },
              {
                "depth": 8,
                "value": 1.0,
                "norm_class_idx": 1,
                "splits": [
                  {
                    "var": 87,
                    "quality": 1.9316618347167969e+02,
                    "le": 1.9931460265070200e-03
                  }
                ]
              },
              {
                "depth": 9,
                "value": 1.0,
                "norm_class_idx": 1,
                "splits": [
                  {
                    "var": 39,
                    "quality": 1.9050651550292969e+02,
                    "le": 230.0
                  }
                ]
              },
              {
                "depth": 10,
                "value": 1.0,
                "norm_class_idx": 1,
                "splits": [
                  {
                    "var": 38,
                    "quality": 1.6623464965820312e+02,
                    "le": 2.5000000000000000e+00
                  }
                ]
              },
              {
                "depth": 11,
                "value": 1.0,
                "norm_class_idx": 1
              },
              {
                "depth": 11,
                "value": 1.0,
                "norm_class_idx": 1,
                "splits": [
                  {
                    "var": 58,
                    "quality": 1.5912500000000000e+02,
                    "le": -3.0403396114706993e-02
                  }
                ]
              },
              {
                "depth": 12,
                "value": 1.0,
                "norm_class_idx": 1
              },
              {
                "depth": 12,
                "value": 1.0,
                "norm_class_idx": 1,
                "splits": [
                  {
                    "var": 53,
                    "quality": 16.0,
                    "le": -2.8872765600681305e-02
                  }
                ]
              },
              {
                "depth": 13,
                "value": 0.0,
                "norm_class_idx": 0
              },
              {
                "depth": 13,
                "value": 1.0,
                "norm_class_idx": 1
              },
              {
                "depth": 10,
                "value": 1.0,
                "norm_class_idx": 1,
                "splits": [
                  {
                    "var": 103,
                    "quality": 3.1552381515502930e+01,
                    "le": 6.3371284484863281e+01
                  }
                ]
              },
              {
                "depth": 11,
                "value": 0.0,
                "norm_class_idx": 0
              },
              {
                "depth": 11,
                "value": 1.0,
                "norm_class_idx": 1,
                "splits": [
                  {
                    "var": 75,
                    "quality": 28.0,
                    "le": 3.5878020524978638e-01
                  }
                ]
              },
              {
                "depth": 12,
                "value": 0.0,
                "norm_class_idx": 0
              },
              {
                "depth": 12,
                "value": 1.0,
                "norm_class_idx": 1
              },
              {
                "depth": 9,
                "value": 0.0,
                "norm_class_idx": 0
              },
              {
                "depth": 8,
                "value": 0.0,
                "norm_class_idx": 0
              },
              {
                "depth": 6,
                "value": 0.0,
                "norm_class_idx": 0
              },
              {
                "depth": 3,
                "value": 1.0,
                "norm_class_idx": 1,
                "splits": [
                  {
                    "var": 59,
                    "quality": 2.0600975036621094e+02,
                    "le": 2.2088108062744141e+00
                  }
                ]
              },
              {
                "depth": 4,
                "value": 1.0,
                "norm_class_idx": 1,
                "splits": [
                  {
                    "var": 25,
                    "quality": 204.0,
                    "le": 5.0678447723388672e+01
                  }
                ]
              },
              {
                "depth": 5,
                "value": 1.0,
                "norm_class_idx": 1
              },
              {
                "depth": 5,
                "value": 0.0,
                "norm_class_idx": 0
              },
              {
                "depth": 4,
                "value": 0.0,
                "norm_class_idx": 0
              },
              {
                "depth": 2,
                "value": 0.0,
                "norm_class_idx": 0,
                "splits": [
                  {
                    "var": 106,
                    "quality": 5.2969230651855469e+01,
                    "le": 6.5712854266166687e-03
                  }
                ]
              },
              {
                "depth": 3,
                "value": 1.0,
                "norm_class_idx": 1
              },
              {
                "depth": 3,
                "value": 0.0,
                "norm_class_idx": 0,
                "splits": [
                  {
                    "var": 32,
                    "quality": 5.4565216064453125e+01,
                    "le": 2.4500000000000000e+01
                  }
                ]
              },
              {
                "depth": 4,
                "value": 0.0,
                "norm_class_idx": 0,
                "splits": [
                  {
                    "var": 65,
                    "quality": 1.8636363983154297e+01,
                    "le": 2.3050169646739960e-01
                  }
                ]
              },
              {
                "depth": 5,
                "value": 1.0,
                "norm_class_idx": 1,
                "splits": [
                  {
                    "var": 52,
                    "quality": 11.0,
                    "le": 2.4432510137557983e-01
                  }
                ]
              },
              {
                "depth": 6,
                "value": 1.0,
                "norm_class_idx": 1
              },
              {
                "depth": 6,
                "value": 0.0,
                "norm_class_idx": 0
              },
              {
                "depth": 5,
                "value": 0.0,
                "norm_class_idx": 0
              },
              {
                "depth": 4,
                "value": 0.0,
                "norm_class_idx": 0
              },
              {
                "depth": 1,
                "value": 0.0,
                "norm_class_idx": 0,
                "splits": [
                  {
                    "var": 45,
                    "quality": 6.9108752441406250e+02,
                    "le": 4.0823669433593750e+01
                  }
                ]
              },
              {
                "depth": 2,
                "value": 0.0,
                "norm_class_idx": 0,
                "splits": [
                  {
                    "var": 105,
                    "quality": 4.4219204711914062e+02,
                    "le": 4.9524016380310059e+00
                  }
                ]
              },
              {
                "depth": 3,
                "value": 0.0,
                "norm_class_idx": 0,
                "splits": [
                  {
                    "var": 108,
                    "quality": 2.6573333740234375e+02,
                    "le": -6.5258336067199707e-01
                  }
                ]
              },
              {
                "depth": 4,
                "value": 1.0,
                "norm_class_idx": 1
              },
              {
                "depth": 4,
                "value": 0.0,
                "norm_class_idx": 0,
                "splits": [
                  {
                    "var": 58,
                    "quality": 2.6502984619140625e+02,
                    "le": -7.6621487736701965e-02
                  }
                ]
              },
              {
                "depth": 5,
                "value": 0.0,
                "norm_class_idx": 0
              },
              {
                "depth": 5,
                "value": 0.0,
                "norm_class_idx": 0,
                "splits": [
                  {
                    "var": 59,
                    "quality": 2.6560000610351562e+02,
                    "le": 1.2672081589698792e-01
                  }
                ]
              },
              {
                "depth": 6,
                "value": 0.0,
                "norm_class_idx": 0
              },
              {
                "depth": 6,
                "value": 0.0,
                "norm_class_idx": 0
              },
              {
                "depth": 3,
                "value": 0.0,
                "norm_class_idx": 0,
                "splits": [
                  {
                    "var": 98,
                    "quality": 1.9084817504882812e+02,
                    "le": 1.0196412801742554e+00
                  }
                ]
              },
              {
                "depth": 4,
                "value": 0.0,
                "norm_class_idx": 0,
                "splits": [
                  {
                    "var": 0,
                    "quality": 2.5742856979370117e+01,
                    "le": 7.4935221672058105e-01
                  }
                ]
              },
              {
                "depth": 5,
                "value": 0.0,
                "norm_class_idx": 0,
                "splits": [
                  {
                    "var": 98,
                    "quality": 14.0,
                    "le": 9.8100548982620239e-01
                  }
                ]
              },
              {
                "depth": 6,
                "value": 0.0,
                "norm_class_idx": 0
              },
              {
                "depth": 6,
                "value": 1.0,
                "norm_class_idx": 1
              },
              {
                "depth": 5,
                "value": 1.0,
                "norm_class_idx": 1,
                "splits": [
                  {
                    "var": 5,
                    "quality": 20.0,
                    "le": 2.1521404266357422e+01
                  }
                ]
              },
              {
                "depth": 6,
                "value": 1.0,
                "norm_class_idx": 1
              },
              {
                "depth": 6,
                "value": 0.0,
                "norm_class_idx": 0
              },
              {
                "depth": 4,
                "value": 0.0,
                "norm_class_idx": 0,
                "splits": [
                  {
                    "var": 77,
                    "quality": 1.7574243164062500e+02,
                    "le": -4.4004708528518677e-02
                  }
                ]
              },
              {
                "depth": 5,
                "value": 0.0,
                "norm_class_idx": 0,
                "splits": [
                  {
                    "var": 10,
                    "quality": 1.0333333015441895e+01,
                    "le": 2.7151557922363281e+01
                  }
                ]
              },
              {
                "depth": 6,
                "value": 1.0,
                "norm_class_idx": 1
              },
              {
                "depth": 6,
                "value": 0.0,
                "norm_class_idx": 0
              },
              {
                "depth": 5,
                "value": 0.0,
                "norm_class_idx": 0,
                "splits": [
                  {
                    "var": 66,
                    "quality": 1.7094117736816406e+02,
                    "le": 1.8320164084434509e-01
                  }
                ]
              },
              {
                "depth": 6,
                "value": 0.0,
                "norm_class_idx": 0,
                "splits": [
                  {
                    "var": 72,
                    "quality": 17.0,
                    "le": 3.2000088691711426e-01
                  }
                ]
              },
              {
                "depth": 7,
                "value": 0.0,
                "norm_class_idx": 0
              },
              {
                "depth": 7,
                "value": 1.0,
                "norm_class_idx": 1
              },
              {
                "depth": 6,
                "value": 0.0,
                "norm_class_idx": 0
              },
              {
                "depth": 2,
                "value": 0.0,
                "norm_class_idx": 0,
                "splits": [
                  {
                    "var": 37,
                    "quality": 2.6764846801757812e+02,
                    "le": 1.4850000000000000e+02
                  }
                ]
              },
              {
                "depth": 3,
                "value": 0.0,
                "norm_class_idx": 0,
                "splits": [
                  {
                    "var": 96,
                    "quality": 1.5859495544433594e+02,
                    "le": 4.9722108840942383e+00
                  }
                ]
              },
              {
                "depth": 4,
                "value": 0.0,
                "norm_class_idx": 0,
                "splits": [
                  {
                    "var": 16,
                    "quality": 88.0,
                    "le": 5.6069839477539062e+01
                  }
                ]
              },
              {
                "depth": 5,
                "value": 0.0,
                "norm_class_idx": 0
              },
              {
                "depth": 5,
                "value": 0.0,
                "norm_class_idx": 0
              },
              {
                "depth": 4,
                "value": 0.0,
                "norm_class_idx": 0,
                "splits": [
                  {
                    "var": 55,
                    "quality": 8.5727348327636719e+01,
                    "le": 7.3180750012397766e-02
                  }
                ]
              },
              {
                "depth": 5,
                "value": 1.0,
                "norm_class_idx": 1,
                "splits": [
                  {
                    "var": 31,
                    "quality": 4.7165515899658203e+01,
                    "le": 7.6249656677246094e+01
                  }
                ]
              },
              {
                "depth": 6,
                "value": 1.0,
                "norm_class_idx": 1,
                "splits": [
                  {
                    "var": 70,
                    "quality": 4.4557266235351562e+01,
                    "le": 1.6283172369003296e-01
                  }
                ]
              },
              {
                "depth": 7,
                "value": 1.0,
                "norm_class_idx": 1,
                "splits": [
                  {
                    "var": 0,
                    "quality": 4.1548782348632812e+01,
                    "le": 6.9095903635025024e-01
                  }
                ]
              },
              {
                "depth": 8,
                "value": 0.0,
                "norm_class_idx": 0
              },
              {
                "depth": 8,
                "value": 1.0,
                "norm_class_idx": 1,
                "splits": [
                  {
                    "var": 40,
                    "quality": 41.0,
                    "le": 4.5746765136718750e+01
                  }
                ]
              },
              {
                "depth": 9,
                "value": 1.0,
                "norm_class_idx": 1
              },
              {
                "depth": 9,
                "value": 0.0,
                "norm_class_idx": 0
              },
              {
                "depth": 7,
                "value": 0.0,
                "norm_class_idx": 0,
                "splits": [
                  {
                    "var": 52,
                    "quality": 13.0,
                    "le": 9.8178312182426453e-02
                  }
                ]
              },
              {
                "depth": 8,
                "value": 0.0,
                "norm_class_idx": 0
              },
              {
                "depth": 8,
                "value": 1.0,
                "norm_class_idx": 1
              },
              {
                "depth": 6,
                "value": 0.0,
                "norm_class_idx": 0
              },
              {
                "depth": 5,
                "value": 0.0,
                "norm_class_idx": 0,
                "splits": [
                  {
                    "var": 63,
                    "quality": 5.2584220886230469e+01,
                    "le": 1.7929193377494812e-01
                  }
                ]
              },
              {
                "depth": 6,
                "value": 0.0,
                "norm_class_idx": 0,
                "splits": [
                  {
                    "var": 24,
                    "quality": 5.0887428283691406e+01,
                    "le": 2.2150000000000000e+02
                  }
                ]
              },
              {
                "depth": 7,
                "value": 0.0,
                "norm_class_idx": 0,
                "splits": [
                  {
                    "var": 73,
                    "quality": 2.0947368621826172e+01,
                    "le": -1.1489246971905231e-03
                  }
                ]
              },
              {
                "depth": 8,
                "value": 0.0,
                "norm_class_idx": 0,
                "splits": [
                  {
                    "var": 57,
                    "quality": 1.7500000000000000e+01,
                    "le": 1.7686630785465240e-01
                  }
                ]
              },
              {
                "depth": 9,
                "value": 1.0,
                "norm_class_idx": 1
              },
              {
                "depth": 9,
                "value": 0.0,
                "norm_class_idx": 0
              },
              {
                "depth": 8,
                "value": 1.0,
                "norm_class_idx": 1
              },
              {
                "depth": 7,
                "value": 0.0,
                "norm_class_idx": 0,
                "splits": [
                  {
                    "var": 58,
                    "quality": 3.7719299316406250e+01,
                    "le": -8.1496693193912506e-02
                  }
                ]
              },
              {
                "depth": 8,
                "value": 0.0,
                "norm_class_idx": 0
              },
              {
                "depth": 8,
                "value": 0.0,
                "norm_class_idx": 0,
                "splits": [
                  {
                    "var": 3,
                    "quality": 37.0,
                    "le": 69.0
                  }
                ]
              },
              {
                "depth": 9,
                "value": 0.0,
                "norm_class_idx": 0
              },
              {
                "depth": 9,
                "value": 0.0,
                "norm_class_idx": 0
              },
              {
                "depth": 6,
                "value": 1.0,
                "norm_class_idx": 1
              },
              {
                "depth": 3,
                "value": 1.0,
                "norm_class_idx": 1,
                "splits": [
                  {
                    "var": 74,
                    "quality": 1.4786016845703125e+02,
                    "le": 1.3421232700347900e+00
                  }
                ]
              },
              {
                "depth": 4,
                "value": 0.0,
                "norm_class_idx": 0,
                "splits": [
                  {
                    "var": 71,
                    "quality": 1.1700238037109375e+02,
                    "le": 2.4058210849761963e-01
                  }
                ]
              },
              {
                "depth": 5,
                "value": 0.0,
                "norm_class_idx": 0,
                "splits": [
                  {
                    "var": 0,
                    "quality": 7.3077400207519531e+01,
                    "le": 8.6037194728851318e-01
                  }
                ]
              },
              {
                "depth": 6,
                "value": 0.0,
                "norm_class_idx": 0,
                "splits": [
                  {
                    "var": 15,
                    "quality": 6.4324325561523438e+01,
                    "le": 2.5534687042236328e+01
                  }
                ]
              },
              {
                "depth": 7,
                "value": 1.0,
                "norm_class_idx": 1
              },
              {
                "depth": 7,
                "value": 0.0,
                "norm_class_idx": 0,
                "splits": [
                  {
                    "var": 7,
                    "quality": 6.6450706481933594e+01,
                    "le": 2.1950000000000000e+02
                  }
                ]
              },
              {
                "depth": 8,
                "value": 0.0,
                "norm_class_idx": 0,
                "splits": [
                  {
                    "var": 36,
                    "quality": 6.5119400024414062e+01,
                    "le": 1.4800790405273438e+02
                  }
                ]
              },
              {
                "depth": 9,
                "value": 0.0,
                "norm_class_idx": 0
              },
              {
                "depth": 9,
                "value": 0.0,
                "norm_class_idx": 0,
                "splits": [
                  {
                    "var": 19,
                    "quality": 67.0,
                    "le": 2.1550000000000000e+02
                  }
                ]
              },
              {
                "depth": 10,
                "value": 0.0,
                "norm_class_idx": 0
              },
              {
                "depth": 10,
                "value": 1.0,
                "norm_class_idx": 1
              },
              {
                "depth": 8,
                "value": 1.0,
                "norm_class_idx": 1
              },
              {
                "depth": 6,
                "value": 1.0,
                "norm_class_idx": 1,
                "splits": [
                  {
                    "var": 93,
                    "quality": 2.1347221374511719e+01,
                    "le": 9.5126605033874512e-01
                  }
                ]
              },
              {
                "depth": 7,
                "value": 1.0,
                "norm_class_idx": 1,
                "splits": [
                  {
                    "var": 34,
                    "quality": 16.0,
                    "le": 141.0
                  }
                ]
              },
              {
                "depth": 8,
                "value": 0.0,
                "norm_class_idx": 0
              },
              {
                "depth": 8,
                "value": 1.0,
                "norm_class_idx": 1
              },
              {
                "depth": 7,
                "value": 0.0,
                "norm_class_idx": 0
              },
              {
                "depth": 5,
                "value": 1.0,
                "norm_class_idx": 1,
                "splits": [
                  {
                    "var": 77,
                    "quality": 6.1666667938232422e+01,
                    "le": 5.9160841628909111e-03
                  }
                ]
              },
              {
                "depth": 6,
                "value": 1.0,
                "norm_class_idx": 1,
                "splits": [
                  {
                    "var": 83,
                    "quality": 5.8479198455810547e+01,
                    "le": -9.8367162048816681e-02
                  }
                ]
              },
              {
                "depth": 7,
                "value": 0.0,
                "norm_class_idx": 0,
                "splits": [
                  {
                    "var": 62,
                    "quality": 1.5846154212951660e+01,
                    "le": 5.7193166017532349e-01
                  }
                ]
              },
              {
                "depth": 8,
                "value": 0.0,
                "norm_class_idx": 0
              },
              {
                "depth": 8,
                "value": 1.0,
                "norm_class_idx": 1,
                "splits": [
                  {
                    "var": 9,
                    "quality": 1.0142857551574707e+01,
                    "le": 2.4750000000000000e+02
                  }
                ]
              },
              {
                "depth": 9,
                "value": 0.0,
                "norm_class_idx": 0
              },
              {
                "depth": 9,
                "value": 1.0,
                "norm_class_idx": 1
              },
              {
                "depth": 7,
                "value": 1.0,
                "norm_class_idx": 1,
                "splits": [
                  {
                    "var": 85,
                    "quality": 4.9192592620849609e+01,
                    "le": 8.0088693648576736e-03
                  }
                ]
              },
              {
                "depth": 8,
                "value": 0.0,
                "norm_class_idx": 0
              },
              {
                "depth": 8,
                "value": 1.0,
                "norm_class_idx": 1,
                "splits": [
                  {
                    "var": 35,
                    "quality": 4.8339622497558594e+01,
                    "le": 1.9469577789306641e+01
                  }
                ]
              },
              {
                "depth": 9,
                "value": 0.0,
                "norm_class_idx": 0
              },
              {
                "depth": 9,
                "value": 1.0,
                "norm_class_idx": 1,
                "splits": [
                  {
                    "var": 40,
                    "quality": 4.9250000000000000e+01,
                    "le": 4.5712944030761719e+01
                  }
                ]
              },
              {
                "depth": 10,
                "value": 1.0,
                "norm_class_idx": 1
              },
              {
                "depth": 10,
                "value": 1.0,
                "norm_class_idx": 1
              },
              {
                "depth": 6,
                "value": 0.0,
                "norm_class_idx": 0,
                "splits": [
                  {
                    "var": 57,
                    "quality": 1.6399999618530273e+01,
                    "le": 1.4267027378082275e-01
                  }
                ]
              },
              {
                "depth": 7,
                "value": 0.0,
                "norm_class_idx": 0
              },
              {
                "depth": 7,
                "value": 1.0,
                "norm_class_idx": 1
              },
              {
                "depth": 4,
                "value": 1.0,
                "norm_class_idx": 1,
                "splits": [
                  {
                    "var": 54,
                    "quality": 4.9581817626953125e+01,
                    "le": 8.8661545515060425e-01
                  }
                ]
              },
              {
                "depth": 5,
                "value": 1.0,
                "norm_class_idx": 1,
                "splits": [
                  {
                    "var": 31,
                    "quality": 4.9613094329833984e+01,
                    "le": 6.4980819702148438e+01
                  }
                ]
              },
              {
                "depth": 6,
                "value": 1.0,
                "norm_class_idx": 1,
                "splits": [
                  {
                    "var": 15,
                    "quality": 47.0,
                    "le": 6.3940170288085938e+01
                  }
                ]
              },
              {
                "depth": 7,
                "value": 1.0,
                "norm_class_idx": 1
              },
              {
                "depth": 7,
                "value": 0.0,
                "norm_class_idx": 0
              },
              {
                "depth": 6,
                "value": 1.0,
                "norm_class_idx": 1
              },
              {
                "depth": 5,
                "value": 0.0,
                "norm_class_idx": 0
              }
            ]
          },
          {
            "nodes": [
              {
                "depth": 0,
                "value": 0.0,
                "norm_class_idx": 0,
                "splits": [
                  {
                    "var": 75,
                    "quality": 1.0521794433593750e+03,
                    "le": 2.8496825695037842e-01
                  }
                ]
              },
              {
                "depth": 1,
                "value": 0.0,
                "norm_class_idx": 0,
                "splits": [
                  {
                    "var": 92,
                    "quality": 6.8219219970703125e+02,
                    "le": 1.9770908355712891e+01
                  }
                ]
              },
              {
                "depth": 2,
                "value": 0.0,
                "norm_class_idx": 0,
                "splits": [
                  {
                    "var": 32,
                    "quality": 3.5152874755859375e+02,
                    "le": 4.4750000000000000e+01
                  }
                ]
              },
              {
                "depth": 3,
                "value": 0.0,
                "norm_class_idx": 0,
                "splits": [
                  {
                    "var": 64,
                    "quality": 4.9309089660644531e+01,
                    "le": 9.3012297153472900e-01
                  }
                ]
              },
              {
                "depth": 4,
                "value": 1.0,
                "norm_class_idx": 1
              },
              {
                "depth": 4,
                "value": 0.0,
                "norm_class_idx": 0,
                "splits": [
                  {
                    "var": 103,
                    "quality": 4.7799999237060547e+01,
                    "le": 6.7599998474121094e+01
                  }
                ]
              },
              {
                "depth": 5,
                "value": 0.0,
                "norm_class_idx": 0
              },
              {
                "depth": 5,
                "value": 0.0,
                "norm_class_idx": 0,
                "splits": [
                  {
                    "var": 84,
                    "quality": 1.3199999809265137e+01,
                    "le": 5.6907624006271362e-02
                  }
                ]
              },
              {
                "depth": 6,
                "value": 0.0,
                "norm_class_idx": 0
              },
              {
                "depth": 6,
                "value": 1.0,
                "norm_class_idx": 1
              },
              {
                "depth": 3,
                "value": 0.0,
                "norm_class_idx": 0,
                "splits": [
                  {
                    "var": 0,
                    "quality": 3.1271279907226562e+02,
                    "le": 8.5660231113433838e-01
                  }
                ]
              },
              {
                "depth": 4,
                "value": 0.0,
                "norm_class_idx": 0,
                "splits": [
                  {
                    "var": 93,
                    "quality": 3.0850787353515625e+02,
                    "le": 8.4951305389404297e-01
                  }
                ]
              },
              {
                "depth": 5,
                "value": 0.0,
                "norm_class_idx": 0,
                "splits": [
                  {
                    "var": 65,
                    "quality": 6.0129032135009766e+01,
                    "le": 2.9255229234695435e-01
                  }
                ]
              },
              {
                "depth": 6,
                "value": 0.0,
                "norm_class_idx": 0,
                "splits": [
                  {
                    "var": 11,
                    "quality": 5.8435089111328125e+01,
                    "le": 1.7576470947265625e+02
                  }
                ]
              },
              {
                "depth": 7,
                "value": 0.0,
                "norm_class_idx": 0,
                "splits": [
                  {
                    "var": 83,
                    "quality": 56.0,
                    "le": -1.5061473846435547e-01
                  }
                ]
              },
              {
                "depth": 8,
                "value": 0.0,
                "norm_class_idx": 0
              },
              {
                "depth": 8,
                "value": 0.0,
                "norm_class_idx": 0
              },
              {
                "depth": 7,
                "value": 0.0,
                "norm_class_idx": 0
              },
              {
                "depth": 6,
                "value": 1.0,
                "norm_class_idx": 1
              },
              {
